-4.62795
2.14069
-2.95335
-4.45765
-1.46689
0.395355
3.24807
-2.42323
4.06177
-3.39988
-0.323279
1.02889
-0.0600895
-0.332935
0.113723
0.96216
0.833333
0.592838
1.04405
0.00181775
2.383
-0.480286
1.15437
2.21187
0.13532
-0.610397
-1.17066
0.596273
-1.95857
1.49991
0.762624
0.454141
0.024615
0.538645
0.913832
0.793973
0.0209925
0.792994
-0.0836043
0.503815
1.42329
-0.650823
0.46406
0.858252
0.583314
0.29189
-1.05411
0.353163
-1.26838
0.91172
0.828169
1.08841
0.622637
0.144489
1.04314
0.835038
0.955709
0.89812
1.10841
0.336011
0.874973
0.548793
0.118019
0.949987
0.579881
0.98451
0.343766
0.925008
0.712856
0.588594
0.524484
0.274871
0.08578
0.965367
0.427759
0.173362
0.823034
0.949486
0.752373
0.251917
2.35843
-0.984828
1.0563
2.50051
0.245547
0.259765
-1.65217
0.692672
-2.02367
1.70987
0.412411
0.510344
0.614483
0.652864
0.278182
0.521899
0.714053
0.913485
0.220931
0.938276
6.25143
-1.39872
3.4003
5.75731
1.99781
0.0806629
-2.49237
3.0351
-3.69309
3.60554
3.06883
-3.85496
0.668587
-1.99763
2.49965
1.4725
1.31957
-4.3292
1.14704
-10.8176
