4.47377
-4.37384
-4.36039
-6.16656
10.1535
4.7033
4.2786
5.56858
3.5538
-3.6198
3.5629
-7.8622
-18.0196
0.327818
-0.840427
3.06268
-1.70965
-0.301968
3.04513
-4.35028
0.531852
3.67981
-5.301
-5.38984
0.654533
0.62129
0.565899
0.665961
0.46931
-0.617453
-0.447329
1.17666
1.16493
1.23986
-0.386863
-0.468472
-0.41011
-0.505979
-0.297369
0.969451
-0.447329
1.17666
1.16493
1.23986
-0.386863
-0.468472
-0.41011
-0.505979
-0.297369
0.969451
-0.447329
1.17666
1.16493
1.23986
-0.386863
-0.468472
-0.41011
-0.505979
-0.297369
0.969451
-0.447329
1.17666
1.16493
1.23986
-0.386863
-0.468472
-0.41011
-0.505979
-0.297369
0.969451
-0.447329
1.17666
1.16493
1.23986
-0.386863
-0.468472
-0.41011
-0.505979
-0.297369
0.969451
-0.447329
1.17666
1.16493
1.23986
-0.386863
-0.468472
-0.41011
-0.505979
-0.297369
0.969451
-0.447329
1.17666
1.16493
1.23986
-0.386863
-0.468472
-0.41011
-0.505979
-0.297369
0.969451
-0.447329
1.17666
1.16493
1.23986
-0.386863
-0.468472
-0.41011
-0.505979
-0.297369
0.969451
11.0948
3.53303
-2.74619
-2.74619
-2.74619
-2.74619
-2.74619
-2.74619
-2.74619
-2.74619
