-1.39527
1.39101
5.61998
1.57471
1.55741
-1.13841
5.25555
1.48955
-0.140593
-1.33848
1.46514
-1.4089
1.78187
-1.78782
-2.04649
-0.0598001
1.70645
-2.03825
3.82215
0.417567
0.510458
0.223455
-0.0106575
0.286494
0.0274337
0.696688
0.28357
0.46164
0.367143
0.0106362
1.00615
-2.08278
2.03423
-2.11251
-1.8292
0.355358
1.99538
-1.74679
3.76872
0.612782
1.48806
-0.999074
0.609939
-1.22901
-0.90068
0.410772
0.615453
-0.263742
2.13348
0.0628136
1.03851
0.203662
-0.781336
0.0311847
-0.378731
0.459217
-0.0508281
-0.11548
1.09349
0.0839865
2.38535
-3.79977
4.99337
-4.99386
-4.95552
-0.0692608
4.49918
-4.81082
9.18032
0.537862
0.82933
-1.50571
1.29117
-0.968664
-1.70777
0.149001
1.7725
-0.813587
1.86764
0.487987
0.49045
0.545925
-0.0110593
0.390192
0.77198
0.55852
0.380402
0.863205
0.154812
0.922807
-0.611931
-0.458355
5.1143
-0.887252
-1.15106
-1.69021
5.59995
-0.262016
2.89491
-1.44077
-1.03506
-1.34737
6.28025
-1.36884
-1.07032
-2.32729
6.30671
-1.00269
4.62984
-2.04763
4.86352
1.2145
4.88279
2.58047
2.0477
12.8908
2.82448
0.974906
-8.73759
-10.54
